tree
version=v4
num_class=1
num_tree_per_iteration=1
label_index=0
max_feature_idx=7
objective=regression
feature_names=Column_0 Column_1 Column_2 Column_3 Column_4 Column_5 Column_6 Column_7
feature_infos=[0.49990000000000001:15.0001] [1:52] [0.84615384615384615:141.90909090909091] [0.33333333333333331:25.636363636363637] [3:35682] [0.69230769230769229:1243.3333333333333] [32.539999999999999:41.920000000000002] [-124.34999999999999:-114.31]
tree_sizes=2683 2831 2844 2853 2841 2862 2846 2855 2855 2843

Tree=0
num_leaves=31
num_cat=0
split_feature=0 0 0 5 5 2 1 0 6 0 0 5 5 5 1 1 5 5 0 6 7 7 0 0 2 0 2 1 1 6
split_gain=6670.76 1834.17 1151.86 1026.56 354.238 329.124 258.936 212.852 210.945 200.311 188.931 186.095 112.055 110.737 96.3907 92.7527 88.2453 87.7213 86.36 77.3567 110.13 65.6627 65.575 64.7271 62.7723 61.0864 62.247 59.7184 53.2284 46.7264
threshold=5.1302000000000012 3.1261000000000005 6.8273500000000009 2.371531798451318 2.7345340074406184 4.1984609840818914 19.500000000000004 4.1101000000000001 37.935000000000009 2.3960500000000002 7.8217000000000008 2.4412369162640908 2.914587508927132 2.0125687833843204 43.500000000000007 20.500000000000004 2.3342331138396069 2.2064691799617711 5.7640000000000011 37.935000000000009 -118.24499999999999 -122.40499999999999 3.9004500000000006 3.5519500000000002 5.1058925653594782 2.2120500000000005 3.3048191862438254 26.500000000000004 40.500000000000007 34.455000000000005
decision_type=2 2 2 2 2 2 2 2 2 2 2 2 2 2 2 2 2 2 2 2 2 2 2 2 2 2 2 2 2 2
left_child=1 5 4 6 15 11 -3 14 13 -7 27 19 28 23 24 -2 -11 -17 -6 20 -1 -16 -15 -8 -5 26 -13 -4 -9 -18
right_child=2 3 10 7 18 9 8 12 -10 16 -12 25 -14 22 21 17 29 -19 -20 -21 -22 -23 -24 -25 -26 -27 -28 -29 -30 -31
leaf_value=2.1147737081135696 2.1517471018032523 2.0760532002726362 2.1985850492265016 2.0426546473629448 2.0947266044626645 1.955594729552169 2.1676913949658885 2.0853556005413023 2.0409482687985272 2.0400238254349086 2.315825645622704 2.0282905462221863 2.0506575633235888 2.1224824682413121 2.1498255381961306 2.3069200741386759 2.0099046548870443 2.2060647274479281 2.145835552351361 1.9834279678868099 2.0274375764817192 2.054041548559884 2.1891605285364761 2.253303880752942 2.0112004745941987 2.0282701866599089 1.9730453249674633 2.2738776519752903 2.1440743353789027 1.9763567482311961
leaf_weight=377 258 426 256 1105 675 1970 134 885 117 433 610 297 1150 297 97 104 685 505 648 93 234 273 293 259 1490 770 651 179 187 1054
leaf_count=377 258 426 256 1105 675 1970 134 885 117 433 610 297 1150 297 97 104 685 505 648 93 234 273 293 259 1490 770 651 179 187 1054
internal_value=2.06477 2.0334 2.19354 2.07015 2.15232 1.99581 2.14225 2.04894 2.16788 1.97869 2.27992 2.02509 2.07234 2.18299 2.0314 2.202 1.99963 2.22329 2.11976 2.06839 2.08133 2.07915 2.1556 2.22411 2.02459 2.00735 1.99035 2.22957 2.0956 1.98957
internal_weight=16512 13277 3235 6713 2190 6564 1526 5187 1100 4142 1045 2422 2222 983 2965 867 2172 609 1323 704 611 370 590 393 2595 1718 948 435 1072 1739
internal_count=16512 13277 3235 6713 2190 6564 1526 5187 1100 4142 1045 2422 2222 983 2965 867 2172 609 1323 704 611 370 590 393 2595 1718 948 435 1072 1739
is_linear=0
shrinkage=1


Tree=1
num_leaves=31
num_cat=0
split_feature=0 0 0 5 5 2 0 1 6 0 5 0 0 0 5 6 7 1 5 5 7 6 7 5 7 5 1 1 6 7
split_gain=5415.16 1398.08 1026.82 860.01 320.753 257.211 225.879 207.509 173.811 153.034 125.573 114.099 107.25 88.3381 87.6002 83.456 141.672 76.6538 82.7322 68.9886 63.3139 83.644 93.0327 70.7661 61.8083 58.4181 53.7204 48.3719 47.9673 47.2304
threshold=5.0351500000000007 2.8380000000000005 6.8273500000000009 2.3055777777777782 2.729274182476034 3.821140840929139 3.8338000000000005 24.500000000000004 37.935000000000009 7.8217000000000008 2.7717583305889049 2.2577500000000001 3.6856000000000004 5.6770500000000004 3.1165962163940022 37.935000000000009 -122.24499999999999 17.500000000000004 2.1003985251974258 2.2975636086533173 -117.77499999999999 34.515000000000008 -120.11499999999999 3.1922348042998405 -122.32499999999997 1.8401923076923079 20.500000000000004 26.500000000000004 34.455000000000005 -118.21499999999999
decision_type=2 2 2 2 2 2 2 2 2 2 2 2 2 2 2 2 2 2 2 2 2 2 2 2 2 2 2 2 2 2
left_child=1 5 4 7 17 14 15 -3 12 27 26 -7 24 -6 29 16 -5 -2 -19 -13 21 23 -23 -18 -9 -14 -8 -4 -21 -1
right_child=2 3 9 6 13 11 10 8 -10 -11 -12 19 25 -15 -16 -17 20 18 -20 28 -22 22 -24 -25 -26 -27 -28 -29 -30 -31
leaf_value=0.014394099740739697 0.068377008086128885 0.016939318560914178 0.12043298512580805 0.066711160335208061 0.021330540222303532 -0.097778969399990048 -0.0084744552545306679 0.16431494924559523 -0.029946238692235023 0.22594952137072069 -0.014843179708018732 -0.026677920591549449 0.22010815540949502 0.070325543060716783 -0.055009551912845789 -0.069753951269404021 0.012443359044332821 0.2213352565067945 0.1223307598802673 -0.05284703522774175 -0.065214332643992748 -0.028567763346275483 -0.10646680841189729 -0.035939245295599491 0.060608493341340476 0.12599433488500719 0.041660012344629328 0.18819633290983281 -0.089023513373585064 -0.045044314038066358
leaf_weight=435 223 575 256 145 738 2096 293 67 103 610 1835 394 84 734 718 636 635 97 650 636 541 468 228 577 404 307 790 179 865 193
leaf_count=435 223 575 256 145 738 2096 293 67 103 610 1835 394 84 734 718 636 635 97 650 636 541 468 228 577 404 307 790 179 865 193
internal_value=-2.23716e-10 -0.0296308 0.11068 -0.00233348 0.0751816 -0.0689528 -0.0190728 0.0644935 0.0928288 0.193634 0.00109361 -0.0817018 0.107499 0.0457615 -0.0311508 -0.0372913 -0.0293321 0.119827 0.135187 -0.0639193 -0.0350186 -0.0264568 -0.0540864 -0.0105903 0.0753608 0.146213 0.0280964 0.148317 -0.0736949 -0.0038728
internal_weight=16512 13025 3487 7688 2442 5337 6148 1540 965 1045 2918 3991 862 1472 1346 3230 2594 970 747 1895 2449 1908 696 1212 471 391 1083 435 1501 628
internal_count=16512 13025 3487 7688 2442 5337 6148 1540 965 1045 2918 3991 862 1472 1346 3230 2594 970 747 1895 2449 1908 696 1212 471 391 1083 435 1501 628
is_linear=0
shrinkage=0.1


Tree=2
num_leaves=31
num_cat=0
split_feature=0 0 5 0 5 5 6 1 7 0 6 7 6 5 6 7 5 1 7 0 7 6 5 6 5 6 7 5 0 0
split_gain=4416.11 1335.98 735.105 632.652 277.213 213.392 203.888 191.396 173.507 163.77 151.023 136.206 154.917 105.463 92.1717 90.4435 90.2102 87.6922 83.8725 72.6763 71.2323 70.3756 69.4779 68.9733 68.842 64.6397 67.0301 61.7376 51.5746 47.9059
threshold=5.3075500000000009 3.1903000000000006 2.4010759924166778 7.6446500000000013 2.1524716039772129 2.9475004287429263 34.455000000000005 19.500000000000004 -117.77499999999999 4.4114500000000012 37.925000000000004 -121.62499999999999 38.675000000000004 3.4514541070491624 37.955000000000005 -118.24499999999999 1.9493645844873158 20.500000000000004 -122.38499999999998 6.4986000000000006 -122.38499999999998 37.735000000000007 2.8043218844038607 38.315000000000005 2.9273235144743528 34.595000000000006 -120.50499999999998 2.2064691799617711 6.3526500000000015 9.130250000000002
decision_type=2 2 2 2 2 2 2 2 2 2 2 2 2 2 2 2 2 2 2 2 2 2 2 2 2 2 2 2 2 2
left_child=1 4 7 5 14 17 8 -3 13 18 16 12 20 -6 15 25 -9 -2 23 -7 -8 22 -20 -4 -11 -1 -27 -19 -29 -5
right_child=3 2 9 29 6 19 11 10 -10 24 -12 -13 -14 -15 -16 -17 -18 27 21 -21 -22 -23 -24 -25 -26 26 -28 28 -30 -31
leaf_value=0.086498356204180588 0.074428221476581236 0.01154170608046793 0.067031764111410583 0.17359276553641306 -0.0023857262148933092 0.033782569428782307 0.032252433834695199 0.14717805679801471 -0.079051878938797365 0.035274979794177201 -0.011140201615376606 -0.098299788014124673 -0.10206795953840853 -0.048993047291697428 -0.063554792292310258 -0.029351137336959845 0.082191647203621154 0.20506040036093953 0.00267069169140512 0.095377062834548151 -0.043025660704686053 -0.060706140578880519 -0.032412906343697506 -0.035578428417480053 -0.0045197133351238634 0.030239733719854524 -0.10433718860149384 0.10278376351078128 0.15740475574397106 0.22722133757638152
leaf_weight=175 382 451 177 367 920 678 162 303 953 829 135 1828 428 1028 220 340 724 102 833 267 561 543 1751 104 914 233 44 487 268 305
leaf_count=175 382 451 177 367 920 678 162 303 953 829 135 1828 428 1028 220 340 724 102 833 267 561 543 1751 104 914 233 44 487 268 305
internal_value=-2.75054e-10 -0.0236504 0.0079222 0.113084 -0.0546365 0.0869772 -0.0629568 0.0668339 -0.0440869 -0.0105256 0.0882941 -0.0813325 -0.0543854 -0.0269814 -0.00629368 0.00961218 0.101365 0.114276 -0.0232774 0.0511855 -0.0261584 -0.0279801 -0.0211031 0.029055 0.0144073 0.0389209 0.00886289 0.132038 0.122172 0.197933
internal_weight=16512 13656 6764 2856 6892 2184 5880 1613 2901 5151 1162 2979 1151 1948 1012 792 1027 1239 3408 945 723 3127 2584 281 1743 452 277 857 755 672
internal_count=16512 13656 6764 2856 6892 2184 5880 1613 2901 5151 1162 2979 1151 1948 1012 792 1027 1239 3408 945 723 3127 2584 281 1743 452 277 857 755 672
is_linear=0
shrinkage=0.1


Tree=3
num_leaves=31
num_cat=0
split_feature=0 0 5 0 5 1 0 1 6 6 7 7 6 5 5 7 7 6 7 1 6 7 6 5 6 0 5 7 0 7
split_gain=3606.78 1220.06 597.31 386.693 224.542 192.717 188.791 169.467 165.149 156.576 140.541 110.326 135.421 88.9162 85.5739 76.1069 75.3146 74.9127 74.5896 56.147 55.6974 61.9156 54.8875 54.6393 52.3552 49.2366 44.8139 44.7846 43.931 40.6696
threshold=5.5982000000000012 3.1903000000000006 2.4473422622161771 7.8217000000000008 2.1524716039772129 20.500000000000004 4.5398500000000004 27.500000000000004 34.455000000000005 37.935000000000009 -117.77499999999999 -121.62499999999999 37.905000000000008 1.9493645844873158 3.4256824216675521 -122.30499999999999 -122.38499999999998 37.935000000000009 -118.24499999999999 17.500000000000004 37.735000000000007 -117.79499999999999 38.745000000000012 2.6773796281582714 34.145000000000003 3.9462500000000005 3.0004492362982931 -122.40499999999999 6.2949500000000009 -122.40499999999999
decision_type=2 2 2 2 2 2 2 2 2 2 2 2 2 2 2 2 2 2 2 2 2 2 2 2 2 2 2 2 2 2
left_child=1 4 5 7 17 -3 16 23 10 13 14 12 15 -7 -6 -10 22 18 24 -8 21 26 -4 -2 -1 29 -18 -26 -25 -15
right_child=3 2 6 -5 8 9 19 -9 11 -11 -12 -13 -14 25 -16 -17 20 -19 -20 -21 -22 -23 -24 28 27 -27 -28 -29 -30 -31
leaf_value=0.094571158754746476 0.11037248838182311 0.0092619080577719809 0.04606278163548358 0.18331386884216405 -0.0017128706038020915 0.13791283536141732 -0.0081219492546593698 0.13150651061523844 0.064526012315301695 -0.013768373587328736 -0.071146690906225815 -0.088469809657920576 -0.079488760654196577 0.13299690211305812 -0.043746405242457501 -0.030373951788546877 0.0046948650942175985 -0.056548587760991524 -0.026416023943080187 0.02966589936854604 -0.054657855693981086 -0.047538644519778406 -0.07902098512504159 0.03277559612576237 0.11108492359865543 0.095557722613067247 -0.025027228872625675 0.0017505194203723288 0.07782176249930936 0.0354574474436231
leaf_weight=113 228 583 243 610 902 299 566 643 107 163 953 1828 642 49 1046 402 940 225 340 1288 551 615 41 432 43 498 1102 291 434 335
leaf_count=113 228 583 243 610 902 299 566 643 107 163 953 1828 642 49 1046 402 940 225 340 1288 551 615 41 432 43 498 1102 291 434 335
internal_value=-4.6252e-11 -0.0190243 0.00954499 0.114818 -0.0491729 0.0572777 -0.00766059 0.0907641 -0.0566611 0.0781061 -0.0396782 -0.0731993 -0.0489469 0.0907864 -0.0242832 -0.0104245 -0.0213534 -0.00566431 0.00888329 0.0181298 -0.0257231 -0.0197227 0.0280049 0.0668178 0.0357329 0.0748105 -0.0113452 0.0158265 0.0553507 0.0479039
internal_weight=16512 14165 7273 2347 6892 1927 5346 1737 5880 1344 2901 2979 1151 1181 1948 509 3492 1012 787 1854 3208 2657 284 1094 447 882 2042 334 866 384
internal_count=16512 14165 7273 2347 6892 1927 5346 1737 5880 1344 2901 2979 1151 1181 1948 509 3492 1012 787 1854 3208 2657 284 1094 447 882 2042 334 866 384
is_linear=0
shrinkage=0.1


Tree=4
num_leaves=31
num_cat=0
split_feature=0 0 0 5 5 2 0 1 1 0 6 1 5 2 1 0 5 5 5 6 7 5 7 2 6 7 0 0 6 7
split_gain=2941.58 723.722 640.012 457.533 238.319 154.303 137.013 131.373 100.39 96.3011 94.8443 72.8965 65.6488 60.0755 58.6144 57.1307 54.9286 52.9841 42.6011 42.2083 43.1315 39.6386 39.2633 38.9423 33.1439 42.4075 31.7463 31.4363 26.8577 24.9822
threshold=4.6740500000000003 6.3526500000000015 2.7020500000000003 2.2975636086533173 2.5773921881806308 3.821140840929139 8.3805000000000032 24.500000000000004 27.500000000000004 3.6567500000000002 37.815000000000005 42.500000000000007 1.9493645844873158 5.0028647957796277 21.500000000000004 1.9198500000000001 2.0596122127986098 3.0087726048480188 3.0945720470192111 37.955000000000005 -117.86499999999999 2.8409492451011888 -122.27499999999999 4.372560745310337 37.935000000000009 -118.21499999999999 3.4727000000000001 3.8136000000000005 37.935000000000009 -122.38499999999998
decision_type=2 2 2 2 2 2 2 2 2 2 2 2 2 2 2 2 2 2 2 2 2 2 2 2 2 2 2 2 2 2
left_child=2 4 5 7 14 18 8 -4 -3 13 12 21 26 29 -2 -7 -16 19 24 20 -6 -11 -14 -17 25 -1 -9 -24 -18 -5
right_child=1 6 3 9 17 15 -8 10 -10 11 -12 -13 22 -15 16 23 28 -19 -20 -21 -22 -23 27 -25 -26 -27 -28 -29 -30 -31
leaf_value=0.024667899173661644 0.049400042831786117 0.083697052830031066 0.0041359660645580989 0.033140715994396372 0.061232451579603886 -0.082406600317308121 0.17681527909205516 0.083837800285451722 0.14904940034951628 0.003269140952085945 -0.004688597502915756 0.036778616289567176 0.12258123017170214 -0.045296908447605318 0.17609014520619781 -0.034892490623762096 0.10005583096839565 0.0089131830131458176 -0.040629253415649935 -0.0079187853866262946 0.0066871530784142989 -0.022657432641740513 0.027908024109211206 -0.063342997997677605 -0.075726656565153649 -0.034467380093460419 0.14922618135409868 0.089994146533509983 0.017909115503293421 -0.020605966239454272
leaf_weight=345 267 606 560 92 670 1161 427 148 384 1007 161 352 77 1550 94 669 417 1078 683 151 185 1423 300 1713 58 187 149 112 44 1442
leaf_count=345 267 606 560 92 670 1161 427 148 384 1007 161 352 77 1550 94 669 417 1078 683 151 185 1423 300 1713 58 187 149 112 44 1442
internal_value=2.84487e-10 0.0708731 -0.0251362 -0.00661658 0.0423018 -0.0534885 0.129468 0.0425312 0.109046 -0.0192428 0.0652358 -0.00575249 0.0795588 -0.0314121 0.0878997 -0.0642178 0.106421 0.0243165 -0.0236268 0.0408222 0.0494303 -0.0119134 0.0570358 -0.0553525 -0.00394427 0.00388163 0.116642 0.0447858 0.0922154 -0.0173826
internal_weight=16512 4323 12189 7373 2906 4816 1417 1507 990 5866 947 2782 786 3084 822 3543 555 2084 1273 1006 855 2430 489 2382 590 532 297 412 461 1534
internal_count=16512 4323 12189 7373 2906 4816 1417 1507 990 5866 947 2782 786 3084 822 3543 555 2084 1273 1006 855 2430 489 2382 590 532 297 412 461 1534
is_linear=0
shrinkage=0.1


Tree=5
num_leaves=31
num_cat=0
split_feature=0 0 5 0 5 0 5 1 6 5 6 2 0 7 5 7 1 7 7 6 7 1 6 7 7 6 6 6 6 7
split_gain=2411.39 813.431 354.387 252.064 223.48 133.68 117.685 114.49 97.953 85.4464 84.9734 75.1351 74.0951 73.5436 72.5405 62.3669 48.2825 44.0355 41.8544 63.4653 101.792 40.7241 39.5633 38.8848 37.8495 52.0005 35.2417 32.6222 32.5159 32.5033
threshold=5.5982000000000012 3.5519500000000002 2.371531798451318 7.8217000000000008 2.1524716039772129 2.5401500000000001 2.5951273395035273 17.500000000000004 34.455000000000005 2.9735711666404741 37.925000000000004 5.0498538011695908 2.4175000000000004 -122.21499999999999 2.0596122127986098 -117.59499999999998 27.500000000000004 -122.38499999999998 -117.95499999999998 34.665000000000006 -120.11499999999999 21.500000000000004 34.045000000000009 -119.85499999999998 -121.49499999999999 34.515000000000008 38.315000000000005 37.815000000000005 37.57500000000001 -117.79499999999999
decision_type=2 2 2 2 2 2 2 2 2 2 2 2 2 2 2 2 2 2 2 2 2 2 2 2 2 2 2 2 2 2
left_child=1 4 7 6 12 8 -2 -3 15 10 13 17 -1 -4 -9 22 -8 26 19 -15 28 -14 -6 -10 -11 29 -7 -23 -21 -26
right_child=3 2 9 -5 5 11 16 14 23 24 -12 -13 21 18 -16 -17 -18 -19 -20 20 -22 27 -24 -25 25 -27 -28 -29 -30 -31
leaf_value=-0.026467593044065679 0.11634271333950441 0.008799695520504535 0.086159036143942214 0.14918385756744043 -0.039976459661391649 0.069055632170402712 0.046063684127891719 0.11460325522177761 -0.063883528209581639 0.01113929380670186 -0.023280564721870668 -0.045192393308176315 -0.011909336080514567 0.044520781542609078 0.056450201486704737 -0.066959506773526259 0.089815133556590557 -0.020236878097745936 -0.0073875056478669883 0.042821065862986722 -0.089772006775279647 0.05051708930697249 -0.0013761827121410582 -0.097321429181419603 -0.0015726559825079115 -0.055668744199021271 -0.042862184149905662 -0.017280830924385503 -0.016322113658012501 -0.034993212845614734
leaf_weight=484 484 308 167 610 731 101 903 355 1306 469 506 1601 222 771 542 548 350 1898 512 259 103 430 417 474 923 344 39 85 145 425
leaf_count=484 484 308 167 610 731 101 903 355 1306 469 506 1601 222 771 542 548 350 1898 512 259 103 430 417 474 923 344 39 85 145 425
internal_value=1.76328e-10 -0.0155554 0.0131018 0.0938828 -0.0355942 -0.042377 0.0744621 0.0614029 -0.0564018 0.000514652 0.0132477 -0.0289804 0.00393062 0.0226924 0.0794651 -0.0392043 0.0582848 -0.0162447 0.0167713 0.0264499 -0.0010307 0.0238936 -0.0259553 -0.0727878 -0.0139979 -0.0209656 0.0378785 0.0393271 0.0215939 -0.0121096
internal_weight=16512 14165 5829 2347 8336 7115 1737 1205 3476 4624 2463 3639 1221 1957 897 1696 1253 2038 1790 1278 507 737 1148 1780 2161 1692 140 515 404 1348
internal_count=16512 14165 5829 2347 8336 7115 1737 1205 3476 4624 2463 3639 1221 1957 897 1696 1253 2038 1790 1278 507 737 1148 1780 2161 1692 140 515 404 1348
is_linear=0
shrinkage=0.1


Tree=6
num_leaves=31
num_cat=0
split_feature=0 0 0 5 5 2 0 1 1 6 7 5 1 6 0 5 6 7 7 5 1 7 6 7 0 6 7 5 7 3
split_gain=1980.79 530.391 383.156 289.121 166.795 108.66 96.1197 82.5756 76.9657 73.8979 143.159 65.2725 55.1936 50.6605 47.4476 45.7633 42.9428 84.3516 74.9114 42.5358 41.3176 37.6692 57.0734 31.5421 31.4164 29.9988 41.3923 27.8575 27.4995 25.9951
threshold=4.5398500000000004 6.2949500000000009 2.8380000000000005 2.2272253626826912 2.5899561403508775 3.939423336482657 8.6175500000000032 33.500000000000007 24.500000000000004 37.935000000000009 -122.24499999999999 2.8155256109809179 21.500000000000004 38.285000000000004 2.2425500000000005 3.1165962163940022 34.455000000000005 -120.45499999999998 -118.01499999999999 2.0596122127986098 38.500000000000007 -122.40499999999999 34.165000000000006 -118.36499999999999 5.3371500000000003 37.905000000000008 -118.21499999999999 2.2975636086533173 -117.79499999999999 1.0091954508941785
decision_type=2 2 2 2 2 2 2 2 2 2 2 2 2 2 2 2 2 2 2 2 2 2 2 2 2 2 2 2 2 2
left_child=2 4 5 8 12 15 7 29 -4 10 -5 16 -2 21 -7 25 18 -18 -12 -14 24 -10 23 -23 -6 26 -1 -16 -13 -3
right_child=1 6 3 9 20 14 -8 -9 13 -11 11 28 19 -15 27 -17 17 -19 -20 -21 -22 22 -24 -25 -26 -27 -28 -29 -30 -31
leaf_value=0.023881194710074105 0.032756656586074288 0.05142921688894813 0.0071788688024613445 0.056252111827353624 0.0025721511328879003 -0.062115822176874516 0.14890379210109594 0.13487424448401286 0.12388606839992394 -0.039624708327110507 0.037627340076157367 -0.018995558975548676 0.14173224678895666 -0.042128347918729894 -0.015136034095719939 -0.035742727139575874 0.0066118677851637444 -0.07685752746638963 -0.015198770633849274 0.072435941383115612 0.062625686839172565 0.12422096307740593 0.016779988673707762 0.0603437234590192 0.027362015778188517 -0.059760046434821558 -0.027794176483427586 -0.045792055725691873 -0.044250788832040033 0.087903368302681237
leaf_weight=425 315 325 416 308 1180 1902 366 298 104 999 568 1885 106 44 372 855 354 184 509 539 185 122 206 211 902 80 244 1459 559 490
leaf_count=425 315 325 416 308 1180 1902 366 298 104 999 568 1885 106 44 372 855 354 184 509 539 185 122 206 211 902 80 244 1459 559 490
internal_value=1.53763e-10 0.0548587 -0.0218673 -0.00550413 0.0321309 -0.0417011 0.104448 0.089829 0.0411252 -0.0150889 -0.00947612 -0.0144636 0.0670676 0.0616807 -0.0510542 -0.0199334 0.0011362 -0.0219353 0.0126612 0.0838242 0.0173363 0.0687843 0.0581524 0.0837462 0.013312 -0.00188662 0.00503397 -0.0395637 -0.024772 0.0733585
internal_weight=16512 4706 11806 6469 3227 5337 1479 1113 1103 5366 4367 4059 960 687 3733 1604 1615 538 1077 645 2267 643 539 333 2082 749 669 1831 2444 815
internal_count=16512 4706 11806 6469 3227 5337 1479 1113 1103 5366 4367 4059 960 687 3733 1604 1615 538 1077 645 2267 643 539 333 2082 749 669 1831 2444 815
is_linear=0
shrinkage=0.1


Tree=7
num_leaves=31
num_cat=0
split_feature=0 0 0 5 5 6 2 7 0 7 6 7 1 6 7 7 6 7 6 1 7 6 7 5 6 7 5 7 0 6
split_gain=1608.47 460.077 291.231 236.358 158.507 119.663 93.9283 92.0737 79.0021 59.1036 112.043 56.2125 50.887 49.6348 75.9489 47.8361 57.0476 43.7509 43.6838 40.8608 38.1183 59.7001 93.5649 47.416 44.302 35.0853 34.3937 32.5592 26.7875 26.5985
threshold=4.4114500000000012 6.2949500000000009 2.5911000000000004 2.4473422622161771 2.5304200940070509 37.935000000000009 3.6412810780843539 -117.895 7.8217000000000008 -122.32499999999997 34.175000000000004 -118.37499999999999 21.500000000000004 38.455000000000005 -122.40499999999999 -122.23499999999999 37.965000000000011 -117.77499999999999 35.335000000000008 26.500000000000004 -117.79499999999999 34.515000000000008 -121.33499999999999 3.2695690855639801 37.595000000000006 -118.31499999999998 2.0596122127986098 -119.85499999999998 5.6770500000000004 33.695000000000007
decision_type=2 2 2 2 2 2 2 2 2 2 2 2 2 2 2 2 2 2 2 2 2 2 2 2 2 2 2 2 2 2
left_child=2 4 6 5 12 7 -1 9 19 -4 11 -11 -2 14 -5 -6 17 28 25 -3 21 23 24 -16 -23 -8 -14 -20 -17 -9
right_child=1 8 3 13 15 -7 18 29 -10 10 -12 -13 26 -15 20 16 -18 -19 27 -21 -22 22 -24 -25 -26 -27 -28 -29 -30 -31
leaf_value=-0.012102259885314756 0.029241335202338334 0.057297086493103368 0.09611298838568913 0.038183825291599693 0.057332528844943324 -0.031445329825013753 0.00044562042953922611 0.0078401460277214181 0.12158857034275034 0.10946849268655195 0.004587421365865387 0.043528191799953438 0.12745335969763499 -0.047970292904527798 0.010898789880770029 0.016506104114347137 -0.034136801568713966 -0.012321528333888165 -0.051667094381354001 0.10175258773035621 -0.038645702211054178 0.024213921769777866 -0.055718635085424219 -0.020235128001862463 -0.027016313651549075 -0.04247265839635482 0.067939852576744925 -0.082636565324925901 0.046477837644303598 -0.044904953565716443
leaf_weight=878 300 530 182 239 243 381 223 277 610 199 597 369 120 571 1042 1311 253 432 1442 339 853 305 725 922 378 1306 509 444 386 146
leaf_count=878 300 530 182 239 243 381 223 277 610 199 597 369 120 571 1042 1311 253 432 1442 339 853 305 725 922 378 1306 509 444 386 146
internal_value=1.20778e-11 0.0471351 -0.0206665 -0.00835524 0.027631 0.0193921 -0.0412742 0.030335 0.0940031 0.0431161 0.0348368 0.0666305 0.0631305 -0.0202091 -0.0166582 0.0150675 0.0107559 0.0160907 -0.0487744 0.0746393 -0.0197605 -0.0149831 -0.0306981 -0.00371703 -0.00413898 -0.0362132 0.0792938 -0.0589579 0.0233235 -0.010365
internal_weight=16512 5033 11479 7186 3554 2151 4293 1770 1479 1347 1165 568 929 5035 4464 2625 2382 2129 3415 869 4225 3372 1408 1964 683 1529 629 1886 1697 423
internal_count=16512 5033 11479 7186 3554 2151 4293 1770 1479 1347 1165 568 929 5035 4464 2625 2382 2129 3415 869 4225 3372 1408 1964 683 1529 629 1886 1697 423
is_linear=0
shrinkage=0.1


Tree=8
num_leaves=31
num_cat=0
split_feature=0 0 5 0 5 5 6 7 7 6 1 7 6 7 7 6 6 0 7 7 7 7 6 1 6 6 1 3 5 7
split_gain=1321.36 389.811 225.31 189.144 116.944 94.513 79.4537 97.477 85.8812 98.8967 64.199 54.4917 107.318 78.9325 55.0786 51.3755 47.1822 42.4262 40.9278 40.601 38.0186 37.6629 51.1603 36.0717 35.2424 35.1366 34.8795 32.7303 29.9101 29.6649
threshold=5.2755500000000017 3.3288000000000006 2.3485676128889739 6.8273500000000009 2.0454740538431531 3.0147674570751497 34.455000000000005 -118.29499999999999 -121.62499999999999 38.675000000000004 18.500000000000004 -121.87499999999999 34.515000000000008 -118.28499999999998 -119.96499999999999 37.935000000000009 37.815000000000005 9.130250000000002 -117.16499999999998 -117.59499999999998 -122.38499999999998 -117.85499999999998 37.935000000000009 28.500000000000004 37.595000000000006 37.275000000000013 27.500000000000004 1.0271096002911726 2.2638521274646601 -119.85499999999998
decision_type=2 2 2 2 2 2 2 2 2 2 2 2 2 2 2 2 2 2 2 2 2 2 2 2 2 2 2 2 2 2
left_child=1 4 10 5 26 21 7 -6 9 20 -3 15 13 -13 25 -4 18 23 27 -9 -8 22 28 -5 -22 -14 -1 -12 -2 -10
right_child=3 2 11 17 6 -7 8 19 29 -11 16 12 14 -15 -16 -17 -18 -19 -20 -21 24 -23 -24 -25 -26 -27 -28 -29 -30 -31
leaf_value=-0.013024537325588698 0.12103826002620395 0.0063883029974926252 0.032612918722363597 0.064624166733762103 0.012394115606682269 0.013346902325028671 0.032545052440904186 -0.020742227419152347 -0.047296130192492604 -0.062102302420055169 0.039406622785040077 0.030689597222573479 0.015044399970574105 -0.0088211768173895727 -0.075162638712165775 -0.013470226250590127 0.0041886533066158149 0.12651867024966928 -0.054047569032344561 -0.046549331173799668 0.01742135018131934 0.021723286919709227 0.0085609713926911354 0.10993572116383468 -0.031327680483444358 -0.034289357096115629 0.027749514270743188 0.085045411205366114 0.068928371811005681 -0.07231707859281844
leaf_weight=433 131 342 672 453 666 712 208 1613 1264 456 225 673 186 2033 271 378 142 305 27 980 215 214 125 287 478 645 407 521 692 758
leaf_count=433 131 342 672 453 666 712 208 1613 1264 456 225 673 186 2033 271 378 142 305 27 980 215 214 125 287 478 645 407 521 692 758
internal_value=-3.58833e-11 -0.013109 0.00561779 0.0610452 -0.0284225 0.0420365 -0.0328711 -0.0217309 -0.0436156 -0.024155 0.0433536 -0.00414629 -0.00970767 0.00100541 -0.036014 0.016023 0.0571701 0.0951335 0.0669028 -0.0304958 -0.00494969 0.0596156 0.0681694 0.0821977 -0.0162035 -0.0232471 0.00673146 0.0712804 0.0772229 -0.0566759
internal_weight=16512 13593 6115 2919 7478 1874 6638 3259 3379 1357 1257 4858 3808 2706 1102 1050 915 1045 773 2593 901 1162 948 740 693 831 840 746 823 2022
internal_count=16512 13593 6115 2919 7478 1874 6638 3259 3379 1357 1257 4858 3808 2706 1102 1050 915 1045 773 2593 901 1162 948 740 693 831 840 746 823 2022
is_linear=0
shrinkage=0.1


Tree=9
num_leaves=31
num_cat=0
split_feature=0 0 0 5 5 6 7 2 7 6 7 1 5 7 6 6 7 6 7 5 4 1 6 7 0 6 7 6 7 6
split_gain=1082.05 260.033 221.564 177.938 96.8212 76.9289 72.1905 62.631 49.226 63.497 94.0058 46.5809 41.112 38.4267 41.4928 38.3259 41.3114 86.4133 50.0237 38.9879 35.1226 28.8594 36.1841 28.7382 26.6307 26.188 25.1734 24.2008 23.7953 32.7815
threshold=4.8760000000000003 2.8380000000000005 6.5807000000000011 2.4473422622161771 2.7473955507325019 37.935000000000009 -122.30499999999999 4.2601337174152718 -117.13499999999998 34.175000000000004 -118.34499999999998 21.500000000000004 2.4983760337867991 -122.38499999999998 38.745000000000012 37.725000000000001 -121.33499999999999 35.335000000000008 -117.77499999999999 3.4377235461535198 203.50000000000003 27.500000000000004 33.765000000000008 -117.16499999999998 8.6175500000000032 37.945000000000007 -122.35499999999998 33.645000000000003 -121.81499999999998 35.335000000000008
decision_type=2 2 2 2 2 2 2 2 2 2 2 2 2 2 2 2 2 2 2 2 2 2 2 2 2 2 2 2 2 2
left_child=1 7 4 5 23 6 -3 12 9 10 -8 24 -1 14 -5 16 -15 18 19 -18 -13 -12 -23 25 -4 -2 -27 -20 -11 -30
right_child=2 3 11 13 -6 -7 8 -9 -10 28 21 20 -14 15 -16 -17 17 -19 27 -21 -22 22 -24 -25 -26 26 -28 -29 29 -31
leaf_value=0.0028649029748115968 0.061811754042783253 0.084865353402356972 0.045030376660343749 0.032047020743903774 0.01383782076052653 -0.021277639152127697 0.089459278425231728 -0.040131326896261352 -0.040442342144004738 0.018766446645521295 -0.00085338239545283256 -0.014147064034585599 -0.026818552286312077 0.016899354125146808 -0.050980986881848073 -0.033585260605186941 0.0090444292816807877 -0.05677925855656301 -0.012191917813997012 -0.019313036873574274 0.10207680430266429 0.093008965654868866 0.016957561407948848 -0.028873686626462676 0.098599160904806804 0.078254445943543138 -0.027392046487153467 -0.045444822515986985 0.0088046185033762766 -0.06920695773064886
leaf_weight=657 921 218 378 343 1513 335 311 3070 112 350 292 27 1610 496 73 842 1493 415 449 718 703 98 173 41 123 34 67 427 132 91
leaf_count=657 921 218 378 343 1513 335 311 3070 112 350 292 27 1610 496 73 842 1493 415 449 718 703 98 173 41 123 34 67 427 132 91
internal_value=4.68392e-11 -0.0140129 0.0467649 -0.00183703 0.030088 0.0226785 0.0309651 -0.0308223 0.023428 0.0283717 0.0453332 0.081663 -0.018216 -0.011688 0.0174772 -0.0141948 -0.010111 -0.0139366 -0.00817704 -0.000164372 0.0977781 0.020958 0.0444595 0.0532175 0.058182 0.0565108 0.00817212 -0.0284008 0.00250023 -0.0230297
internal_weight=16512 12705 3807 7368 2576 2112 1777 5337 1559 1447 874 1231 2267 5256 416 4840 3998 3502 3087 2211 730 563 271 1063 501 1022 101 876 573 223
internal_count=16512 12705 3807 7368 2576 2112 1777 5337 1559 1447 874 1231 2267 5256 416 4840 3998 3502 3087 2211 730 563 271 1063 501 1022 101 876 573 223
is_linear=0
shrinkage=0.1


end of trees

feature_importances:
Column_7=69
Column_0=63
Column_6=63
Column_5=59
Column_1=32
Column_2=11
Column_3=2
Column_4=1

parameters:
[boosting: gbdt]
[objective: regression]
[metric: l2]
[tree_learner: serial]
[device_type: cpu]
[data_sample_strategy: bagging]
[data: ]
[valid: ]
[num_iterations: 10]
[learning_rate: 0.1]
[num_leaves: 31]
[num_threads: 0]
[seed: 0]
[deterministic: 0]
[force_col_wise: 0]
[force_row_wise: 0]
[histogram_pool_size: -1]
[max_depth: -1]
[min_data_in_leaf: 20]
[min_sum_hessian_in_leaf: 0.001]
[bagging_fraction: 1]
[pos_bagging_fraction: 1]
[neg_bagging_fraction: 1]
[bagging_freq: 0]
[bagging_seed: 3]
[bagging_by_query: 0]
[feature_fraction: 1]
[feature_fraction_bynode: 1]
[feature_fraction_seed: 2]
[extra_trees: 0]
[extra_seed: 6]
[early_stopping_round: 0]
[early_stopping_min_delta: 0]
[first_metric_only: 0]
[max_delta_step: 0]
[lambda_l1: 0]
[lambda_l2: 0]
[linear_lambda: 0]
[min_gain_to_split: 0]
[drop_rate: 0.1]
[max_drop: 50]
[skip_drop: 0.5]
[xgboost_dart_mode: 0]
[uniform_drop: 0]
[drop_seed: 4]
[top_rate: 0.2]
[other_rate: 0.1]
[min_data_per_group: 100]
[max_cat_threshold: 32]
[cat_l2: 10]
[cat_smooth: 10]
[max_cat_to_onehot: 4]
[top_k: 20]
[monotone_constraints: ]
[monotone_constraints_method: basic]
[monotone_penalty: 0]
[feature_contri: ]
[forcedsplits_filename: ]
[refit_decay_rate: 0.9]
[cegb_tradeoff: 1]
[cegb_penalty_split: 0]
[cegb_penalty_feature_lazy: ]
[cegb_penalty_feature_coupled: ]
[path_smooth: 0]
[interaction_constraints: ]
[verbosity: 1]
[saved_feature_importance_type: 0]
[use_quantized_grad: 0]
[num_grad_quant_bins: 4]
[quant_train_renew_leaf: 0]
[stochastic_rounding: 1]
[linear_tree: 0]
[max_bin: 255]
[max_bin_by_feature: ]
[min_data_in_bin: 3]
[bin_construct_sample_cnt: 200000]
[data_random_seed: 1]
[is_enable_sparse: 1]
[enable_bundle: 1]
[use_missing: 1]
[zero_as_missing: 0]
[feature_pre_filter: 1]
[pre_partition: 0]
[two_round: 0]
[header: 0]
[label_column: ]
[weight_column: ]
[group_column: ]
[ignore_column: ]
[categorical_feature: ]
[forcedbins_filename: ]
[precise_float_parser: 0]
[parser_config_file: ]
[objective_seed: 5]
[num_class: 1]
[is_unbalance: 0]
[scale_pos_weight: 1]
[sigmoid: 1]
[boost_from_average: 1]
[reg_sqrt: 0]
[alpha: 0.9]
[fair_c: 1]
[poisson_max_delta_step: 0.7]
[tweedie_variance_power: 1.5]
[lambdarank_truncation_level: 30]
[lambdarank_norm: 1]
[label_gain: ]
[lambdarank_position_bias_regularization: 0]
[eval_at: ]
[multi_error_top_k: 1]
[auc_mu_weights: ]
[num_machines: 1]
[local_listen_port: 12400]
[time_out: 120]
[machine_list_filename: ]
[machines: ]
[gpu_platform_id: -1]
[gpu_device_id: -1]
[gpu_use_dp: 0]
[num_gpu: 1]

end of parameters

pandas_categorical:null
